{
  "weights": [
    [
      -0.02163610779153161, 0.005490322458671573, -0.007860867289856115,
      0.0017593538792926133, 0.007166947501692054, -0.0012516330889870996,
      -0.014471367853639804, 0.0005490890698441453, 0.000712603055044348,
      0.017203296129580103
    ],
    [
      -0.004399059544777593, -0.0038381477769859353, 0.022273816958123735,
      -0.0008305203768370038, 0.015277820906481701, 0.004825349717060618,
      0.0026689839532872913, -0.005250676699512107, -0.019895738313586674,
      -0.009710165675008273
    ],
    [
      0.08218004114802652, 0.08381849260843643, 0.07694940422240092,
      0.07335287638943203, 0.08227537863588084, 0.08012684677285906,
      0.09328028857469081, 0.09298120455229855, 0.08407611448058785,
      0.07781552333827706
    ],
    [
      0.0004883217151039565, 0.0025053161096076464, -0.01399324590771138,
      -0.009003227994635984, 0.0019872823232167888, 0.005997945142624584,
      -0.025628366648562283, -0.009335416930532574, 0.012329564833107669,
      0.0011212138734306588
    ],
    [
      0.09077243535759708, 0.0707985777370527, 0.07683669764265336,
      0.07259895912538926, 0.08445322526260586, 0.07705985759054149,
      0.07371846908285164, 0.08524935588584309, 0.09481431978035788,
      0.08109602471383269
    ],
    [
      0.011297771222445322, 0.006338667329621718, -0.007515239452874565,
      0.011000155443232738, -0.0032515250027813233, 0.003074375376202956,
      -0.0007183185532234217, 0.003981603953575096, 0.011073956788358657,
      0.015115431067935342
    ],
    [
      -0.0023470498170245894, 0.0024145998313825044, 0.0010206474926785674,
      -0.013468648409465617, 0.0070862793572496145, 0.001573992069098069,
      0.012246117096371212, 0.014054097424975098, 0.006435601955919345,
      0.0010985705839812287
    ],
    [
      -0.0020993521391118185, -0.005692044046016986, -0.007072812297163273,
      -0.0009440441263971387, -0.01642965022687064, 0.014497327582596059,
      0.011814500451913207, -0.00156017584045365, -0.0019584681586887025,
      0.0034306189668711308
    ],
    [
      -0.0036318082950294894, -0.0027370617758867622, -0.01030490737648898,
      -0.00930652012526256, 0.014554251631653843, 0.004548747207363312,
      -0.0038531230466884053, 0.0008027852053155179, 0.004099802642334729,
      -0.013084595467988016
    ],
    [
      0.015595918281289875, -0.017797181050062092, 0.0036473447543913136,
      -0.0010377473369447608, 0.018478301951602844, -0.013536906399025495,
      0.005612969469091003, 0.0033540065252994885, -0.012044448315164547,
      -0.004459376651565063
    ],
    [
      0.06726502767180002, 0.07901999521224783, 0.06891872595051632,
      0.08724944936707446, 0.06777357137452085, 0.070805172113335,
      0.07533914082240115, 0.07841792302152022, 0.0712316411881043,
      0.08597725632166957
    ],
    [
      -0.02107304049706861, -0.01665189850557909, -0.010667222133296161,
      0.013082610785925609, -0.0027803822683367557, 0.011609717019429451,
      0.02034006846414637, -0.003668074771414664, 0.003210417298300112,
      0.016882823006993397
    ],
    [
      -0.00995394660312932, 0.00823809912802224, 0.010223823511247666,
      0.010789871289759959, 0.014382085313438032, -0.006582920591173189,
      -0.01426431887995815, 0.0072798522135193115, 0.0019901363341430344,
      -0.018765446290030113
    ],
    [
      0.004938945043012049, 0.0007236426118174623, -0.016342950059616036,
      0.007975052218444526, -0.0005117614116889179, -0.0017989853292303879,
      -0.0026665998049017537, -0.019289003260831293, 0.009188332904088442,
      -0.001526571507469916
    ],
    [
      0.08768404077766695, 0.05010141671008736, 0.08295487299590866,
      0.06965656402406016, 0.08066946109977081, 0.08636703129534898,
      0.0684048353982378, 0.06600778476048841, 0.08038137927496528,
      0.0670497618607024
    ],
    [
      0.06501527869831464, 0.07277893260561717, 0.05534164172382524,
      0.04052630764038276, 0.045993481960204016, 0.060904970479105154,
      0.046745378583102105, 0.06465904243665377, 0.05364265038029675,
      0.06450042462543647
    ],
    [
      0.04883951729417604, 0.03796775495733155, 0.0385176003173583,
      0.019648650470981747, 0.028762345637358466, 0.035886886320142176,
      0.03015726655923011, 0.05462571555019103, 0.041781058123009265,
      0.034689624680386937
    ]
  ],
  "bias": [
    0.08065445714678014, 0.08065445714678014, 0.08065445714678014,
    0.08065445714678014, 0.08065445714678014, 0.08065445714678014,
    0.08065445714678014, 0.08065445714678014, 0.08065445714678014,
    0.08065445714678014
  ],
  "state_dim": 17,
  "action_dim": 10
}
